digraph Tree {
node [shape=box] ;
0 [label="X[3] <= 0.8\ngini = 0.664\nsamples = 120\nvalue = [45, 37, 38]"] ;
1 [label="gini = 0.0\nsamples = 45\nvalue = [45, 0, 0]"] ;
0 -> 1 [labeldistance=2.5, labelangle=45, headlabel="True"] ;
2 [label="X[3] <= 1.75\ngini = 0.5\nsamples = 75\nvalue = [0, 37, 38]"] ;
0 -> 2 [labeldistance=2.5, labelangle=-45, headlabel="False"] ;
3 [label="X[2] <= 5.35\ngini = 0.18\nsamples = 40\nvalue = [0, 36, 4]"] ;
2 -> 3 ;
4 [label="X[0] <= 4.95\ngini = 0.1\nsamples = 38\nvalue = [0, 36, 2]"] ;
3 -> 4 ;
5 [label="X[3] <= 1.35\ngini = 0.5\nsamples = 2\nvalue = [0, 1, 1]"] ;
4 -> 5 ;
6 [label="gini = 0.0\nsamples = 1\nvalue = [0, 1, 0]"] ;
5 -> 6 ;
7 [label="gini = 0.0\nsamples = 1\nvalue = [0, 0, 1]"] ;
5 -> 7 ;
8 [label="X[2] <= 4.95\ngini = 0.054\nsamples = 36\nvalue = [0, 35, 1]"] ;
4 -> 8 ;
9 [label="gini = 0.0\nsamples = 33\nvalue = [0, 33, 0]"] ;
8 -> 9 ;
10 [label="X[3] <= 1.55\ngini = 0.444\nsamples = 3\nvalue = [0, 2, 1]"] ;
8 -> 10 ;
11 [label="gini = 0.0\nsamples = 1\nvalue = [0, 0, 1]"] ;
10 -> 11 ;
12 [label="gini = 0.0\nsamples = 2\nvalue = [0, 2, 0]"] ;
10 -> 12 ;
13 [label="gini = 0.0\nsamples = 2\nvalue = [0, 0, 2]"] ;
3 -> 13 ;
14 [label="X[2] <= 4.85\ngini = 0.056\nsamples = 35\nvalue = [0, 1, 34]"] ;
2 -> 14 ;
15 [label="X[0] <= 6.05\ngini = 0.5\nsamples = 2\nvalue = [0, 1, 1]"] ;
14 -> 15 ;
16 [label="gini = 0.0\nsamples = 1\nvalue = [0, 1, 0]"] ;
15 -> 16 ;
17 [label="gini = 0.0\nsamples = 1\nvalue = [0, 0, 1]"] ;
15 -> 17 ;
18 [label="gini = 0.0\nsamples = 33\nvalue = [0, 0, 33]"] ;
14 -> 18 ;
}